function [Y,Xf,Af] = dynamics(X,~,~)
%DYNAMICS neural network simulation function.
%
% Auto-generated by MATLAB, 09-Mar-2023 22:43:16.
% 
% [Y] = dynamics(X,~,~) takes these arguments:
% 
%   X = 1xTS cell, 1 inputs over TS timesteps
%   Each X{1,ts} = 7xQ matrix, input #1 at timestep ts.
% 
% and returns:
%   Y = 1xTS cell of 1 outputs over TS timesteps.
%   Each Y{1,ts} = 6xQ matrix, output #1 at timestep ts.
% 
% where Q is number of samples (or series) and TS is the number of timesteps.

%#ok<*RPMT0>

% ===== NEURAL NETWORK CONSTANTS =====

% Input 1
x1_step1.xoffset = [-39.3983140344853;-1;-4.7118975289757;-0.283853468740254;-1;-3.13670910893656;-0.779636932748128];
x1_step1.gain = [0.0305057337547302;1;0.318356298094115;3.96602110466961;1;0.318752222383915;1.09088223673616];
x1_step1.ymin = -1;

% Layer 1
b1 = [395101792838394.6875;1753852778133336;-2204327919397787.75;-2013751948409124.5;1251207324306891.5;-1066341733831053;-615895002310568.5;1192324245335492.25;-2107755461964651.75;886371748393502.75;-1354968573657973.75;68307762084473.539062;387303209880858;-938596228097995;3558385975811360.5;486362467695130.6875;2127939267337008.25;1964493988033643;-2074737842617316.75;-3347275977682025;-1082513602101684.375;2913191716825398;1883316226595037.5;2885773904878683;3471122170143659;-1791879436438216.25;258356260704959.5;1431298583793962.25;-1796901852003694.25;-1922847774220840.25;-2767577285002698.5;1219716235250024.75;-42019847954645.085938;-962154300605390.125;-2285288548237134.5;-3304269038089662.5;-2375929026393786.5;-1488233011747838;2390044078263928;1542530810618092.25;173038186998390.6875;-578846488421341.875;-376583918829675.8125;-222751001895513.875;3078415310207861;1703539110896289.5;-2279211657626246;-1445380409303087.75;-2766435906747736;136168745858881.64062;-1146634297972239;-1632950121458482.75;731690871991188;455331588688929.375;2602464598701338;-1298622224521904.5;1851284058520874.25;1540296986087600.5;-297276900680742.1875;-1898437311263118.25;1743703171033674.25;1390454715206137.5;2055107815865122.75;-2175429777907619.75];
IW1_1 = [2.3671008455120472469 -658502988063996.75 0.38336165078266265516 1.3077983452241637163 6625535754129008 -1.2970727131087385064 -0.33545492751958316813;0.67158277480344030774 -2923087963555565 1.7680489166612443075 -0.083329497748672751167 -189280182716715.5625 -3.1369044783555746214 0.35465977095674650066;0.64550426688461115532 3673879865662973 -0.074082821995657910374 0.15216101435797488306 5164168656603206 0.81967061694971721231 1.1603560141998336963;-1.0972200258495234948 3356253247348543 -1.113984551742910778 0.37363970487876591031 -390965226443431.3125 -1.16710593554513542 -1.1804603241502067412;-0.11927390759967969325 -2085345540511489 1.6902578495968316741 -1.6460538765327690225 -2412248745272148.5 0.89662836110753330043 0.02633428009269008635;0.30791390270533103291 1777236223051748.25 -3.2176784327405365538 -1.3175652475882000392 -1369137676289750.75 -1.9763828321530148013 0.082874155662601964312;3.7889959155576065086 1026491670517609.5 0.117211588758753954 -0.29449619020323963836 1333664970767683.5 -0.19076442152896810889 -0.1273628897619465683;1.4144997858876504626 -1987207075559157 -1.3257251759738351016 0.42226570509869498782 1272438131896450 -1.4648694825015464716 0.45197660886843077366;1.342297132246616842 3512925769941080 -1.149055253342101901 -0.64239270507750656503 1689384780169383.75 -0.17395208575014811658 0.62958969041478141104;2.0897481757662417223 -1477286247322507.75 -0.28300470496252294605 0.19259022630820368804 -3640316794525228.5 -0.10461753587432216783 0.080462955274721595367;0.049144122782049853848 2258280956096626 1.4747258760315302695 0.72392345102785859989 -8016630692042999 0.086721014264848281239 0.94596552462998551025;-2.1681596726837271127 -113846270140786.375 0.15680072327474878224 0.065672955204413990815 -2213466718243587.25 -0.867443692104344799 -0.25819019001155318893;-1.666754371949562108 -645505349801426.875 -0.52544468208488914751 -1.2334388463252405899 -4155228560674193 -0.7070195783958379554 0.19097548050573021072;-0.77298544526558743417 1564327046829993.25 -0.41107887392567660223 -0.21014012240697302336 3818396804533938 -1.6917222204675617103 0.91183638428213209526;1.2062857077069293332 -5930643293018934 0.7352776529911519976 0.085215987656124272953 338998998450655.75 -0.64505987338730863545 -0.54503125506628091745;0.98296947650606625313 -810604112825220.625 1.5346847309482904986 1.2519515067784008355 4637539510342004 -0.68512279577483869986 -0.14407628208301254125;0.023869437118427930949 -3546565445561676 1.3990901129489352606 1.1899065275343547743 2521617954398055 -0.15675689622998545403 0.67350003435111571726;-1.3716046848083929266 -3274156646722735 -0.66124069401127238965 0.20134069486915390224 1797040288193591.75 0.59015359479502360607 -0.9895218748638046069;-1.4837666550304284829 3457896404362194 0.43820684763433132014 -0.61276577999008563502 -4997132851393182 -0.32554191598103621175 -1.0928168353400451451;-0.83472521066078975149 5578793296136708 -0.52018576916961067891 -0.60768188628842612076 209719840426877.9375 1.1087190530824759804 -0.20648769430150215598;1.2457861252710848987 1804189336836138.5 -1.5492942434654937145 -0.32077280765936982965 5565048531543321 -2.1828175958147371105 0.30401063398466071641;-0.61136023156491270392 -4855319528042326 -0.73967247284480985847 -0.50032404558688625684 5820443069230614 1.0928040638139362439 0.57904787260439560814;1.0205780964472224159 -3138860377658396 0.57619830387322445997 1.3217879850178735346 4861107429112839 -0.64359999328023698162 -0.67570936544631698961;0.31290630568596200511 -4809623174797802 0.35198475058296502249 0.98764718540911144995 -766279983970083.875 -1.8762745156431224203 0.25541593880350393908;-0.48378152395006968067 -5785203616906095 0.51217598001247843786 0.05499034335902354409 -6312122716240051 0.42632699313116667605 0.87860213000508347037;-0.86329833542348988207 2986465727397027 1.3828792331776229574 -0.5607866756179554768 2605972710679297.5 -1.0412082804768494348 -1.3414879594554418585;-1.1506476940415946153 -430593767841598.5625 -1.0437663522232256685 -1.4160457483149855307 -5392388586955103 1.0556995789193925894 -0.069224723347762653902;0.86109928443826833089 -2385497639656603 1.3677165298946276639 -0.56110680012126334937 3730702046383342 -0.71059363168469358296 -1.1028811713489437007;-1.2314946891985540933 2994836420006157.5 -0.48695024916813495208 0.68785218914391177414 7753298220825276 -0.64678560222214065423 0.050190620220923583272;-0.42090520219954880021 3204746290368066 1.3484274912364475618 0.10229570580065022734 -5659824824469322 2.5911563609481049753 -0.20332347440297032781;1.5590867428902672742 4612628808337829 -0.58674931751880465836 0.35030739170364111335 -1128292057426481.25 -0.80085593828393286664 0.91931980832406534621;-1.4145258469332691043 -2032860392083374 1.2569708473128380355 1.3944887969203927369 -2322914025383577.5 2.2922025151719629399 0.040768698091182206666;1.2716058092709017213 70033079924408.390625 0.017162248692730308619 -0.027192843007530786287 138741491886343.875 0.022563212640635009476 -0.010764745126105328479;1.6773319399397934593 1603590501008983.25 0.13708856396438640068 0.64309903443657734368 3995585904232746.5 -0.95445273295373400657 1.1039423633190774687;0.5471984790329914583 3808814247061889 1.372575668668683857 0.41467838904371895348 -457017193581679.75 2.1699583925081524782 1.1873137557801114461;-0.73309429889309418726 5507115063482768 0.89744696209645491436 -0.25612577855124368797 -3480167345341690 -1.006553331033857468 0.38278880311008123272;0.12764757535962018009 3959881710656310.5 -0.09602010881571768075 -0.77957548482792027311 -6020802996928143 1.457549877945236938 -0.69278147625551000921;0.95133963051068515249 2480388352913063 0.018739721072441546668 1.6389678119533026557 6080663516725730 -0.65290388670696153373 -0.72321382704345660297;0.53720735923977758208 -3983406797106544.5 -1.4349776834903120726 1.1680568500910817331 -1572331635895680.25 -0.66208224090403167139 -0.73027422672091291123;0.85245106615418730911 -2570884684363485 0.38937611001222871554 0.86258708268624262328 -6917553926789753 -1.1750825767769976782 -0.062728206489094370801;1.1974825779991844499 -288396978330650.5 -0.22564585243477089382 -0.49472594586082879742 -6324238509214179 0.0099290751365807734807 -0.055801036444095189482;1.2005066676073361531 964744147368904.875 1.3740892123974746131 1.4347438701449977128 4744335214409456 -2.3913016113956153674 0.12252720960143831386;0.22179548184961239699 627639864716127.5 1.2967759563370970799 -0.90267841330151277202 -2120270815487063.75 2.8148774337704938198 0.1507592879282362297;0.85766520078481545131 371251669825856.1875 -0.69200812981187709294 -0.011245157213338519142 -1461715616071097.75 -0.046701270342598515117 0.06364327172359424134;-0.58755743610488164741 -5130692183679768 0.71573899521859174477 -0.37986043712719536058 -601436233462149.875 -0.34087773760232431552 1.3091341472346549324;2.3714097020673805538 -2839231851493811.5 -0.15118542542961410646 0.28942512735353814746 1882975002845001.5 0.12769833726948703889 0.20686287655209045777;0.61016239479226186404 3798686096043744 -0.89513119567952526001 1.2854881768414836429 2447611264913858.5 1.208031118158080286 -0.70643327186942383999;1.1363953937304362984 2408967348838480.5 0.28943947909435641108 -0.79099543632287061534 -5563260198930941 -1.7578720367587610252 0.47046638019691155996;-2.2413940359630792898 4610726511246222 -0.31912820027539828827 -0.96287390491802393733 2388596757778523 0.84497664623265056338 0.50724619012360738779;-0.61158032073627144332 -226947909764804.90625 1.9695495509384861599 -0.058923625329011151963 -6320714711635161 -1.5180458649281129979 -0.067545515273265632761;-1.344214068136208251 1911057163287062 0.49845080876836878048 -0.35565098386863946978 2482846694340228.5 1.162060308713860568 -0.88479339161788306267;0.34432478865081306285 2721583535764139.5 -1.0056872598780122186 -0.46323397695136925289 4491562006143625 -1.2892941963934698713 0.97180457349644167042;1.0651261374850535812 -1219484786651976.5 0.4445413189654194297 0.14790746548047878361 -3531426128082146.5 2.4883391254735003351 -0.38830107101532396197;-1.0817203722636141716 -758885981148218.625 1.4670995012356751186 0.27871977645477608032 734823629211976.125 0.13948700911870848262 -1.975541500529232275;0.6242111937466514604 -4337440997835557.5 -1.1263013908167589516 -0.66463302484043285112 383570744202067.9375 2.7798598676475916314 -0.56379741352244616692;3.8020510610679845165 2164370374203178.25 -0.11046881071159943277 -0.19832855106906269183 617457018977550.5 0.13524669737987585205 -0.22538281285765954243;0.48383528181870627538 -3085473430868116 -2.7601869467667645708 -2.0273564648258477483 -2192933345106145 -0.55034949871592753201 -0.26395663422745319071;-3.4779345318548373633 -2567161643479337.5 -0.52694041780487888005 -0.58451412411431735716 -3474939209285969 -0.2690338911839074143 -0.3121258950774051244;-0.34646217942152218727 495461501134564.875 -1.640628943958804653 -0.76810767346831865243 1450646128471430 2.8755110247330226692 -0.54101827427738702347;1.0969091488156397229 3164062185438534 0.3286095640483086 -0.92378655657243491373 -4375971634886929 0.27818778898818563583 0.087847635614987651387;-1.541857292862103046 -2906171951722792.5 1.2817234213423907008 -0.29139788639034869266 1342924591077337 1.1755795254845133879 0.63256369840181503328;-1.4831175203905755389 -2317424525343567 0.00040801073864528587809 0.95370508811405263483 4203869843578170.5 0.49234545990997985454 0.5997261259745039208;-1.5813737323417149661 -3425179693108541 0.42877917063781667562 1.1113775341677074593 -4505926245581663 -1.3212529119701303948 -1.0434314800213693175;0.25574410899214805593 3625716296512702.5 -0.088380468258238586987 -0.41081121834290507122 5776457941150765 -1.2143055890095020288 -0.11439665180158047064];

% Layer 2
b2 = [0.081544182840441126192;-0.47643192494909308854;-0.054498966150368303996;-0.48933425323650087124;0.0021554174010264388027;0.70729444094802729204];
LW2_1 = [0.026941655481698256053 -0.005163007731003236081 -0.027098426874742835568 -0.0021376104150323312764 -0.00075753212621568265066 -0.00060347608076562588367 0.0697221761809960483 -0.0041074518547173279742 -0.0019819237414859507823 0.06818636866379855499 0.00019895702308429468841 -0.049524169206032392365 -0.0062914517683904155193 -0.0047421804747216555684 -0.00031790188433025978179 0.011724013675677094279 0.0014078392177302905333 -0.0013067154126662511738 -0.0052067222680673040311 0.0012264433007139849841 -0.00056908910832933589773 0.00043044761445061292902 -0.0015436004289013081393 -0.003195612715335175661 0.0015291176968760054455 0.0012057634405614667521 -0.0151910387972272274 0.0013500221182361979433 -0.0030110157200843165257 0.0030697378714325792085 0.00029844204767431826899 0.001476806182818607904 0.67868246865486059338 -0.00057108082329600197077 0.00044409423750550752362 -0.0024646598749931635484 -0.0033106600777365676087 0.0023433812072900651706 0.0020275851264578747049 0.0086199034219426023257 0.034215037789511591748 0.0067644823473329233204 -0.0043006912177641172176 0.039034855440798023329 -0.000917891193316605126 0.059209723357422160139 -0.0018457833143760257917 -0.001087115166190865366 -0.0063378740444641314469 0.00038378581760804874115 -0.0033968006376978287369 0.0012807521881238030127 -0.00035815591877970008247 -0.0036228585332201039895 -0.0072800652207010386682 0.10828261490087211227 -0.0046989570590172391462 -0.027784836838116732521 -0.015677798977878687481 -0.04268911046652242719 -0.0019458738761694797242 0.040947618063410733125 0.0064042047223618172105 0.0033354802546313208449;-0.019077302924284073732 0.023835461214855933887 -0.5412022389778320397 -0.016982307863859191083 0.016359456031534058001 -0.054299271914423123675 0.065175955004329766407 0.011928203899082759701 0.4178076300552978628 0.021739767486760014359 -0.0078954393181730198048 0.15082369073535897841 -0.04392840997982417478 0.010429938700834775339 -0.004790221171857726723 -0.034277937933287282168 -0.005784289844639525606 0.006730680317144556446 -0.0034210394742260541098 -0.0022236772640925051014 0.0023714667692040451025 0.013573086085752045921 -0.0025696475437893273597 -0.0052470731847456368591 0.0073069260862274323584 -0.0042454819590272913424 -0.0014470483323839899471 -0.0021847448728789988642 -0.0056365577456237280635 0.00031480709886361570894 0.0014825875339838361523 0.0074380367623921445075 0.070364556504791328506 -0.013039863645183814855 0.0030393970966688657262 0.0092663663676652487794 -0.0043647246726055029253 0.00034835539646720618681 -0.001445853844200026923 0.0072284316600156970495 -0.060045299237638190271 -0.01477658176145186901 0.017539568166498382962 0.019298103439268632364 0.0041061915270321127508 -0.013893154928889562064 0.0047248216033690644891 -0.024157597760524517766 -0.014804506018101884837 0.0050574698096062737154 -0.0047474678751646603656 0.0061590014582135563931 -0.044671741036723992824 -0.0014793910004439498208 0.046605094122496228126 0.018033450727306193917 -0.028298633466643668272 0.020503382223025324455 -0.0069046460508560133715 0.3832967092677666554 -0.027959036579553456919 -0.55607257503909546248 0.073953972613262933256 0.06705169167407411257;0.041260204991097830518 -0.75025165967257356758 0.04476953420845272702 -0.058987472560460600668 0.089269343032562079032 -0.040258410450635939704 0.10564500127977791144 -0.054376295139741674667 -0.31591845153529340973 -0.1122423002820549659 0.076849899794971629485 0.070877216734058542946 -0.031070489314633641803 -0.0015566137821516683962 -0.00015256938775345244333 0.10418523654119926647 0.07708792153371563094 -0.046734715664685393122 -0.0071145937430910155888 -0.0077999098812019888177 -0.095449773747962318726 0.011845561315351322423 -0.017714278124733563724 -0.012223594666141920223 0.0097975134956623313731 0.0062514696048914693283 -0.091224434632629941566 0.021857706158614959024 -0.0072226698067607798467 0.031936342204529351296 0.014887183015652739534 0.033068444313111643174 0.22483037810891043362 0.00019676462705868748792 0.01264400480384436122 0.005707785909979076408 -0.019898872434728667735 0.026717476510779342852 -0.015953950297394950408 -0.0094187088807604710944 0.010090360862320459437 0.080443894106602520377 0.26219101838314023967 -0.40611195674344746642 -0.0078356150424754959782 0.022793108761961791697 0.0016600191121024312785 0.00087718076261320779979 -0.026323409877316430311 0.19984353622716433119 0.092114872789918145202 -0.024159638901541879985 -0.12408827625649571091 -0.0082235625515898903154 0.10368208051261851299 0.030938016204223862254 -0.055669531389194983062 -0.080184662754208282931 0.7781217018619026593 0.022943512462834915466 0.058390563086965802109 0.16556999207030115295 0.0088192500699349196669 -0.070203017442931156533;-0.31778804369029012289 0.25915020962548102057 0.026411019683716892986 -0.041880288432280976529 -0.45817578254614277355 0.26352617350309898159 0.15604993466269129199 0.011004936658980822919 -0.70981945132626211858 0.22464342161246056429 0.20940811611633844413 0.30918166382264228309 -0.25643106463615555901 0.25887255944177262057 -0.016687034937135133278 -0.010347037688313414847 0.028022109808259313551 -0.10442393056235087234 0.010743604090471077159 -0.026882829445132146867 -0.16477882520981695924 -0.082754891854006668028 0.029078161068842568737 0.076703522794624029446 -0.012275876931723821162 0.02262133207277758698 0.05662749980275706696 -0.13378291236028838629 -0.033988016364638454214 0.013007772268739271199 0.025860487334032147139 0.22268484730915644176 0.73132553214167594913 0.016136872313291413666 0.024966387099828749041 0.086875123024639164249 0.033239922073923136581 -0.012420383005786300376 0.029581917891326584696 0.062191950880606763907 -0.3895583119595645849 0.13091620997034716933 -0.54755969771993562301 0.0010607426942834787334 -0.040379591263574383941 -0.32831493658874688624 -0.013959522502402888638 -0.011555358120477268735 0.0009749190341899408984 -0.13108450135554339244 -0.047522009493077790876 -0.35810112837804591868 0.38656366786909612809 -0.0816609466713927451 0.41066003357272529151 0.16732528710562291629 0.33911210515185213898 -0.057071377187872980585 0.37562136325605688381 0.2733622958151184501 0.39881373337442554972 0.40535180209208038216 0.35772085029103262155 0.18710043209161436595;-0.0098551568586860670285 0.042110300592091309824 0.32361057808970333793 -0.00088005500787076168957 0.010351109291610155125 -0.018920627796097780338 0.02477721800541280231 0.0047938518228352652167 0.12920536669023763299 0.016212913259850785658 -0.010682149596930893762 0.059088802985798258294 -0.0066484266991586023557 -0.0001857731451892948298 -0.0038044095299741148564 -0.0027117979871992725811 0.0017508292597172468111 0.013436963768809935538 -0.001361219166597584353 -0.0039364044442893788428 0.0021828950719859361099 -0.00059268641477950808651 -0.00012237556877443887642 -0.0021943169774322930643 0.00060788159110947723261 -0.003421831342307622096 -0.0070214237525743723387 0.0016114379265358947345 -0.006215016821480213137 -0.00093200238556504974834 0.0025787724829408548502 0.0060448646760318013385 -0.01225658198105781041 -0.0031240216696486193711 -0.00022331416476516809935 0.0040781583528703424513 -0.0018256923548103749441 -0.0010221392704250634523 -0.0014635460043869383262 0.0010658959780724074334 0.0015124685944420783457 -0.00050260342960733387762 0.006841902107643019898 0.010720193870552887846 0.001616302320607051991 -0.026894651474005090708 0.0043705545443816521886 -0.020492379618670647501 -0.016338438293779941612 -0.002096495313423785492 -0.00030098044742724093612 0.0034025548971896172126 -0.019882255160858060966 -0.0039091623770369163249 0.046549077186774333315 0.0050956608798039641772 -0.022038372505870255924 0.0030314487769598627218 -0.0069361558456340127385 0.42257814953514433176 -0.011599179789734841151 0.020807809122140100144 -0.0010499931206224420895 0.067857738013273369293;-0.036531290055243081927 -0.39905083229170501546 0.28880054425112905436 -0.0073567624107455601573 0.0050887628963899355153 0.40966482553283400936 -0.049953533081333816035 -0.062351393951559357098 0.034175215477640782935 -0.056839939529188782119 0.019401435626120868555 -0.19526196521189989608 0.033122987127929416629 -0.041226471200057596134 -0.0037347377335860396964 0.061990233070866367082 0.074259771923120346249 0.02900621201659316778 0.021361808065405198109 -0.0083445660952726138926 0.0011926066502712800999 -0.020474823935150650994 0.018163017096615347717 0.075419820778269683337 0.021453452607991026907 4.4997174799150302436e-05 -0.035089645874339867038 -0.021107067213023335273 0.0028732573600015669062 0.044358524947761185375 -0.0036913488767978783374 0.0034123949747472967844 -0.080328860169998822505 -0.0064072180177992994754 -0.013610759417211565694 0.012004030515086396014 0.013350097691079542556 -0.022322791908958056206 -0.0060088235815653166794 -0.041048962920557437173 0.010004486376542266052 0.073524827835240391671 -0.043150390978915285911 0.024218829847068811673 0.008865785336756533408 -0.047868674950625508813 0.032942851878346404715 0.00108170576282456141 0.0073905333577642760151 -0.02293289766593653578 0.031472301675243244401 0.055709559807410123644 0.37326330966351511931 -0.032892289122422570247 -0.13584384933077700564 0.041477291219634573882 0.49800063284778228745 0.046602944860554149087 0.53904547812679914909 0.18922975274854858529 0.001773958312099913363 0.89769364365197990008 -0.12450731225282879455 -0.10326347813752501104];

% Output 1
y1_step1.ymin = -1;
y1_step1.gain = [0.0302836964257128;1;0.318356298094115;3.95347113304949;1;0.318752222383915];
y1_step1.xoffset = [-39.656973545482;-1;-4.7118975289757;-0.283853468740254;-1;-3.13670910893656];

% ===== SIMULATION ========

% Format Input Arguments
isCellX = iscell(X);
if ~isCellX
  X = {X};
end

% Dimensions
TS = size(X,2); % timesteps
if ~isempty(X)
  Q = size(X{1},2); % samples/series
else
  Q = 0;
end

% Allocate Outputs
Y = cell(1,TS);

% Time loop
for ts=1:TS

    % Input 1
    Xp1 = mapminmax_apply(X{1,ts},x1_step1);
    
    % Layer 1
    a1 = tansig_apply(repmat(b1,1,Q) + IW1_1*Xp1);
    
    % Layer 2
    a2 = repmat(b2,1,Q) + LW2_1*a1;
    
    % Output 1
    Y{1,ts} = mapminmax_reverse(a2,y1_step1);
end

% Final Delay States
Xf = cell(1,0);
Af = cell(2,0);

% Format Output Arguments
if ~isCellX
  Y = cell2mat(Y);
end
end

% ===== MODULE FUNCTIONS ========

% Map Minimum and Maximum Input Processing Function
function y = mapminmax_apply(x,settings)
  y = bsxfun(@minus,x,settings.xoffset);
  y = bsxfun(@times,y,settings.gain);
  y = bsxfun(@plus,y,settings.ymin);
end

% Sigmoid Symmetric Transfer Function
function a = tansig_apply(n,~)
  a = 2 ./ (1 + exp(-2*n)) - 1;
end

% Map Minimum and Maximum Output Reverse-Processing Function
function x = mapminmax_reverse(y,settings)
  x = bsxfun(@minus,y,settings.ymin);
  x = bsxfun(@rdivide,x,settings.gain);
  x = bsxfun(@plus,x,settings.xoffset);
end
